<?xml version="1.0"?>
<opencv_storage>
<cascade>
  <stageType>BOOST</stageType>
  <featureType>HAAR</featureType>
  <height>20</height>
  <width>20</width>
  <stageParams>
    <boostType>GAB</boostType>
    <minHitRate>9.9900001287460327e-01</minHitRate>
    <maxFalseAlarm>5.0000000745058060e-02</maxFalseAlarm>
    <weightTrimRate>9.4999999999999996e-01</weightTrimRate>
    <maxDepth>1</maxDepth>
    <maxWeakCount>100</maxWeakCount></stageParams>
  <featureParams>
    <maxCatCount>0</maxCatCount>
    <featSize>1</featSize>
    <mode>ALL</mode></featureParams>
  <stageNum>3</stageNum>
  <stages>
    <!-- stage 0 -->
    <_>
      <maxWeakCount>7</maxWeakCount>
      <stageThreshold>-5.1040947437286377e-01</stageThreshold>
      <weakClassifiers>
        <_>
          <internalNodes>
            0 -1 14 1.4671659097075462e-02</internalNodes>
          <leafValues>
            -6.7207205295562744e-01 8.3820223808288574e-01</leafValues></_>
        <_>
          <internalNodes>
            0 -1 5 3.6872911732643843e-03</internalNodes>
          <leafValues>
            -5.9240984916687012e-01 9.1151851415634155e-01</leafValues></_>
        <_>
          <internalNodes>
            0 -1 8 1.4686242677271366e-02</internalNodes>
          <leafValues>
            -9.1589987277984619e-01 6.2144470214843750e-01</leafValues></_>
        <_>
          <internalNodes>
            0 -1 10 -6.4690755680203438e-03</internalNodes>
          <leafValues>
            9.8689723014831543e-01 -5.0360256433486938e-01</leafValues></_>
        <_>
          <internalNodes>
            0 -1 11 -1.8635500222444534e-02</internalNodes>
          <leafValues>
            9.9308526515960693e-01 -5.4467070102691650e-01</leafValues></_>
        <_>
          <internalNodes>
            0 -1 0 1.8918013200163841e-02</internalNodes>
          <leafValues>
            -9.2546576261520386e-01 6.5178275108337402e-01</leafValues></_>
        <_>
          <internalNodes>
            0 -1 7 -1.2190228328108788e-02</internalNodes>
          <leafValues>
            5.7596302032470703e-01 -7.7912992238998413e-01</leafValues></_></weakClassifiers></_>
    <!-- stage 1 -->
    <_>
      <maxWeakCount>7</maxWeakCount>
      <stageThreshold>-1.6708666086196899e-01</stageThreshold>
      <weakClassifiers>
        <_>
          <internalNodes>
            0 -1 6 3.5104081034660339e-03</internalNodes>
          <leafValues>
            -6.1871749162673950e-01 8.4397161006927490e-01</leafValues></_>
        <_>
          <internalNodes>
            0 -1 12 1.2266376987099648e-02</internalNodes>
          <leafValues>
            -6.5694546699523926e-01 8.0074274539947510e-01</leafValues></_>
        <_>
          <internalNodes>
            0 -1 20 5.3739850409328938e-03</internalNodes>
          <leafValues>
            -9.1745853424072266e-01 5.4008084535598755e-01</leafValues></_>
        <_>
          <internalNodes>
            0 -1 19 -2.0583696663379669e-02</internalNodes>
          <leafValues>
            9.2152434587478638e-01 -4.9336558580398560e-01</leafValues></_>
        <_>
          <internalNodes>
            0 -1 18 -2.6151601225137711e-02</internalNodes>
          <leafValues>
            9.8530918359756470e-01 -4.6847918629646301e-01</leafValues></_>
        <_>
          <internalNodes>
            0 -1 16 4.3209325522184372e-03</internalNodes>
          <leafValues>
            -3.8892218470573425e-01 9.8994481563568115e-01</leafValues></_>
        <_>
          <internalNodes>
            0 -1 1 2.0842633603024296e-05</internalNodes>
          <leafValues>
            5.4024654626846313e-01 -9.9253547191619873e-01</leafValues></_></weakClassifiers></_>
    <!-- stage 2 -->
    <_>
      <maxWeakCount>7</maxWeakCount>
      <stageThreshold>-3.8380965590476990e-01</stageThreshold>
      <weakClassifiers>
        <_>
          <internalNodes>
            0 -1 4 -5.8226250112056732e-03</internalNodes>
          <leafValues>
            9.2452830076217651e-01 -5.4531002044677734e-01</leafValues></_>
        <_>
          <internalNodes>
            0 -1 2 -5.9452431742101908e-05</internalNodes>
          <leafValues>
            -9.3455207347869873e-01 5.6507343053817749e-01</leafValues></_>
        <_>
          <internalNodes>
            0 -1 17 -5.2599245682358742e-03</internalNodes>
          <leafValues>
            9.2450958490371704e-01 -4.9966508150100708e-01</leafValues></_>
        <_>
          <internalNodes>
            0 -1 13 1.3992291875183582e-02</internalNodes>
          <leafValues>
            -3.9461681246757507e-01 9.9567896127700806e-01</leafValues></_>
        <_>
          <internalNodes>
            0 -1 9 1.3298009289428592e-03</internalNodes>
          <leafValues>
            5.1784712076187134e-01 -1.</leafValues></_>
        <_>
          <internalNodes>
            0 -1 15 -1.5436992049217224e-02</internalNodes>
          <leafValues>
            9.2009180784225464e-01 -5.4275888204574585e-01</leafValues></_>
        <_>
          <internalNodes>
            0 -1 3 -2.0457222490222193e-05</internalNodes>
          <leafValues>
            -1. 5.1562064886093140e-01</leafValues></_></weakClassifiers></_></stages>
  <features>
    <_>
      <rects>
        <_>
          0 0 12 19 -1.</_>
        <_>
          3 0 6 19 2.</_></rects>
      <tilted>0</tilted></_>
    <_>
      <rects>
        <_>
          0 16 3 4 -1.</_>
        <_>
          0 18 3 2 2.</_></rects>
      <tilted>0</tilted></_>
    <_>
      <rects>
        <_>
          0 17 1 2 -1.</_>
        <_>
          0 18 1 1 2.</_></rects>
      <tilted>0</tilted></_>
    <_>
      <rects>
        <_>
          0 18 1 2 -1.</_>
        <_>
          0 19 1 1 2.</_></rects>
      <tilted>0</tilted></_>
    <_>
      <rects>
        <_>
          5 10 1 3 -1.</_>
        <_>
          5 11 1 1 3.</_></rects>
      <tilted>0</tilted></_>
    <_>
      <rects>
        <_>
          6 8 3 1 -1.</_>
        <_>
          7 8 1 1 3.</_></rects>
      <tilted>0</tilted></_>
    <_>
      <rects>
        <_>
          7 6 3 1 -1.</_>
        <_>
          8 6 1 1 3.</_></rects>
      <tilted>0</tilted></_>
    <_>
      <rects>
        <_>
          7 9 6 3 -1.</_>
        <_>
          9 10 2 1 9.</_></rects>
      <tilted>0</tilted></_>
    <_>
      <rects>
        <_>
          8 0 12 20 -1.</_>
        <_>
          11 0 6 20 2.</_></rects>
      <tilted>0</tilted></_>
    <_>
      <rects>
        <_>
          8 0 12 8 -1.</_>
        <_>
          14 0 6 8 2.</_></rects>
      <tilted>0</tilted></_>
    <_>
      <rects>
        <_>
          8 6 3 1 -1.</_>
        <_>
          9 6 1 1 3.</_></rects>
      <tilted>0</tilted></_>
    <_>
      <rects>
        <_>
          8 6 2 12 -1.</_>
        <_>
          8 6 1 6 2.</_>
        <_>
          9 12 1 6 2.</_></rects>
      <tilted>0</tilted></_>
    <_>
      <rects>
        <_>
          8 10 3 3 -1.</_>
        <_>
          9 11 1 1 9.</_></rects>
      <tilted>0</tilted></_>
    <_>
      <rects>
        <_>
          8 12 3 2 -1.</_>
        <_>
          9 12 1 2 3.</_></rects>
      <tilted>0</tilted></_>
    <_>
      <rects>
        <_>
          9 7 3 3 -1.</_>
        <_>
          10 8 1 1 9.</_></rects>
      <tilted>0</tilted></_>
    <_>
      <rects>
        <_>
          10 3 2 10 -1.</_>
        <_>
          10 3 1 5 2.</_>
        <_>
          11 8 1 5 2.</_></rects>
      <tilted>0</tilted></_>
    <_>
      <rects>
        <_>
          11 11 2 2 -1.</_>
        <_>
          11 11 1 1 2.</_>
        <_>
          12 12 1 1 2.</_></rects>
      <tilted>0</tilted></_>
    <_>
      <rects>
        <_>
          11 13 3 1 -1.</_>
        <_>
          12 13 1 1 3.</_></rects>
      <tilted>0</tilted></_>
    <_>
      <rects>
        <_>
          12 9 3 3 -1.</_>
        <_>
          13 10 1 1 9.</_></rects>
      <tilted>0</tilted></_>
    <_>
      <rects>
        <_>
          13 10 3 3 -1.</_>
        <_>
          14 11 1 1 9.</_></rects>
      <tilted>0</tilted></_>
    <_>
      <rects>
        <_>
          14 0 6 6 -1.</_>
        <_>
          14 3 6 3 2.</_></rects>
      <tilted>0</tilted></_></features></cascade>
</opencv_storage>
